digraph Tree {
node [shape=box, style="filled, rounded", color="black", fontname="helvetica"] ;
edge [fontname="helvetica"] ;
0 [label="sepal length (cm) <= 5.45\ngini = 0.66\nsamples = 87\nvalue = [45.0, 55.0, 50.0]\nclass = versicolor", fillcolor="#f5fef9"] ;
1 [label="petal length (cm) <= 2.6\ngini = 0.17\nsamples = 24\nvalue = [39, 4, 0]\nclass = setosa", fillcolor="#e88e4d"] ;
0 -> 1 [labeldistance=2.5, labelangle=45, headlabel="True"] ;
2 [label="gini = 0.0\nsamples = 22\nvalue = [39, 0, 0]\nclass = setosa", fillcolor="#e58139"] ;
1 -> 2 ;
3 [label="gini = 0.0\nsamples = 2\nvalue = [0, 4, 0]\nclass = versicolor", fillcolor="#39e581"] ;
1 -> 3 ;
4 [label="petal length (cm) <= 4.85\ngini = 0.55\nsamples = 63\nvalue = [6, 51, 50]\nclass = versicolor", fillcolor="#fcfffd"] ;
0 -> 4 [labeldistance=2.5, labelangle=-45, headlabel="False"] ;
5 [label="petal length (cm) <= 2.7\ngini = 0.22\nsamples = 31\nvalue = [6, 49, 1]\nclass = versicolor", fillcolor="#55e993"] ;
4 -> 5 ;
6 [label="gini = 0.0\nsamples = 4\nvalue = [6, 0, 0]\nclass = setosa", fillcolor="#e58139"] ;
5 -> 6 ;
7 [label="petal width (cm) <= 1.7\ngini = 0.04\nsamples = 27\nvalue = [0, 49, 1]\nclass = versicolor", fillcolor="#3de684"] ;
5 -> 7 ;
8 [label="gini = 0.0\nsamples = 25\nvalue = [0, 48, 0]\nclass = versicolor", fillcolor="#39e581"] ;
7 -> 8 ;
9 [label="sepal length (cm) <= 5.95\ngini = 0.5\nsamples = 2\nvalue = [0, 1, 1]\nclass = versicolor", fillcolor="#ffffff"] ;
7 -> 9 ;
10 [label="gini = 0.0\nsamples = 1\nvalue = [0, 1, 0]\nclass = versicolor", fillcolor="#39e581"] ;
9 -> 10 ;
11 [label="gini = 0.0\nsamples = 1\nvalue = [0, 0, 1]\nclass = virginica", fillcolor="#8139e5"] ;
9 -> 11 ;
12 [label="sepal length (cm) <= 6.1\ngini = 0.08\nsamples = 32\nvalue = [0, 2, 49]\nclass = virginica", fillcolor="#8641e6"] ;
4 -> 12 ;
13 [label="sepal width (cm) <= 2.75\ngini = 0.3\nsamples = 6\nvalue = [0, 2, 9]\nclass = virginica", fillcolor="#9d65eb"] ;
12 -> 13 ;
14 [label="petal width (cm) <= 1.75\ngini = 0.44\nsamples = 3\nvalue = [0, 2, 4]\nclass = virginica", fillcolor="#c09cf2"] ;
13 -> 14 ;
15 [label="gini = 0.0\nsamples = 1\nvalue = [0, 2, 0]\nclass = versicolor", fillcolor="#39e581"] ;
14 -> 15 ;
16 [label="gini = 0.0\nsamples = 2\nvalue = [0, 0, 4]\nclass = virginica", fillcolor="#8139e5"] ;
14 -> 16 ;
17 [label="gini = 0.0\nsamples = 3\nvalue = [0, 0, 5]\nclass = virginica", fillcolor="#8139e5"] ;
13 -> 17 ;
18 [label="gini = 0.0\nsamples = 26\nvalue = [0, 0, 40]\nclass = virginica", fillcolor="#8139e5"] ;
12 -> 18 ;
}